# Weights file
1.5979826523260774, -0.5725517030547821, 1.460195462989091, -1.101772372651281, -2.23522368206641, 3.4812241098480663, -2.1764359299641343, -3.539044859445427, 4.968732431713124, 0.23050291225996136
-0.01660199119983833, -0.37935681086181744, -2.0495480576473506, 2.7781678255111983, -2.1229802221893683, -0.3546663028181286, -0.4162310617038198, -0.30128643274334743, 2.5285612543546843, -3.7040005218119747, 1.3729436655881022, 0.854827139733062, -3.2418753123316706, 0.6051598998099307, 2.312081677485376, 0.6881000468613417, 1.7289646149707938, -3.2769587688830035, 0.3001071547284206, -1.0800674052955253
-1.7819338556794169, -2.714961014241902, -1.3768467192576106, -1.6159109218083174, -2.042564792750607, -1.8089197131293688, -2.083101889223513, -1.2623618535197385, -2.0427290383000924, -1.9100532011670295, -2.0571593103323704, -1.4376884948826025
-1.717107861371072, -2.987312719351347, -2.4614355076855117, -2.516423644165456, -2.6728827408087814, -2.1155108764996657, -3.154258300292586, -1.6102161489162876, -2.699750306925193, -2.2073986698053054, -1.9664753061157896, -2.868998911221301
-1.7335271354434918, -2.628100833304204, -2.7352080227475373, -1.2820072015479993, -2.482371361905814, -1.839439460071835, -2.457609168885418, -1.727970794617461, -1.6995607624840712, -2.7077126353927623, -1.8264018226153729, -2.184325056634842
-5.387670030630068, -5.651176432665688, -5.440426703866419
8.27099397082427